digraph Tree {
node [shape=box] ;
0 [label="X[0] <= 0.197\nmse = 0.098\nsamples = 200\nvalue = 0.354"] ;
1 [label="X[0] <= 0.092\nmse = 0.038\nsamples = 44\nvalue = 0.689"] ;
0 -> 1 [labeldistance=2.5, labelangle=45, headlabel="True"] ;
2 [label="X[0] <= 0.046\nmse = 0.018\nsamples = 20\nvalue = 0.854"] ;
1 -> 2 ;
3 [label="X[0] <= 0.023\nmse = 0.012\nsamples = 10\nvalue = 0.947"] ;
2 -> 3 ;
4 [label="X[0] <= 0.012\nmse = 0.006\nsamples = 4\nvalue = 1.023"] ;
3 -> 4 ;
5 [label="X[0] <= 0.006\nmse = 0.001\nsamples = 2\nvalue = 0.957"] ;
4 -> 5 ;
6 [label="mse = 0.0\nsamples = 1\nvalue = 0.931"] ;
5 -> 6 ;
7 [label="mse = 0.0\nsamples = 1\nvalue = 0.984"] ;
5 -> 7 ;
8 [label="X[0] <= 0.019\nmse = 0.003\nsamples = 2\nvalue = 1.09"] ;
4 -> 8 ;
9 [label="mse = 0.0\nsamples = 1\nvalue = 1.144"] ;
8 -> 9 ;
10 [label="mse = 0.0\nsamples = 1\nvalue = 1.035"] ;
8 -> 10 ;
11 [label="X[0] <= 0.028\nmse = 0.009\nsamples = 6\nvalue = 0.896"] ;
3 -> 11 ;
12 [label="mse = 0.0\nsamples = 1\nvalue = 0.775"] ;
11 -> 12 ;
13 [label="X[0] <= 0.033\nmse = 0.007\nsamples = 5\nvalue = 0.92"] ;
11 -> 13 ;
14 [label="mse = 0.0\nsamples = 1\nvalue = 1.09"] ;
13 -> 14 ;
15 [label="X[0] <= 0.039\nmse = 0.0\nsamples = 4\nvalue = 0.878"] ;
13 -> 15 ;
16 [label="X[0] <= 0.036\nmse = 0.0\nsamples = 2\nvalue = 0.887"] ;
15 -> 16 ;
17 [label="mse = 0.0\nsamples = 1\nvalue = 0.884"] ;
16 -> 17 ;
18 [label="mse = 0.0\nsamples = 1\nvalue = 0.889"] ;
16 -> 18 ;
19 [label="X[0] <= 0.043\nmse = 0.0\nsamples = 2\nvalue = 0.869"] ;
15 -> 19 ;
20 [label="mse = 0.0\nsamples = 1\nvalue = 0.853"] ;
19 -> 20 ;
21 [label="mse = -0.0\nsamples = 1\nvalue = 0.884"] ;
19 -> 21 ;
22 [label="X[0] <= 0.061\nmse = 0.006\nsamples = 10\nvalue = 0.761"] ;
2 -> 22 ;
23 [label="X[0] <= 0.055\nmse = 0.001\nsamples = 3\nvalue = 0.707"] ;
22 -> 23 ;
24 [label="X[0] <= 0.049\nmse = 0.0\nsamples = 2\nvalue = 0.729"] ;
23 -> 24 ;
25 [label="mse = 0.0\nsamples = 1\nvalue = 0.737"] ;
24 -> 25 ;
26 [label="mse = 0.0\nsamples = 1\nvalue = 0.722"] ;
24 -> 26 ;
27 [label="mse = -0.0\nsamples = 1\nvalue = 0.662"] ;
23 -> 27 ;
28 [label="X[0] <= 0.076\nmse = 0.006\nsamples = 7\nvalue = 0.784"] ;
22 -> 28 ;
29 [label="X[0] <= 0.074\nmse = 0.007\nsamples = 4\nvalue = 0.827"] ;
28 -> 29 ;
30 [label="X[0] <= 0.064\nmse = 0.001\nsamples = 3\nvalue = 0.784"] ;
29 -> 30 ;
31 [label="mse = 0.0\nsamples = 1\nvalue = 0.825"] ;
30 -> 31 ;
32 [label="X[0] <= 0.07\nmse = 0.001\nsamples = 2\nvalue = 0.764"] ;
30 -> 32 ;
33 [label="mse = 0.0\nsamples = 1\nvalue = 0.734"] ;
32 -> 33 ;
34 [label="mse = 0.0\nsamples = 1\nvalue = 0.794"] ;
32 -> 34 ;
35 [label="mse = -0.0\nsamples = 1\nvalue = 0.955"] ;
29 -> 35 ;
36 [label="X[0] <= 0.083\nmse = 0.0\nsamples = 3\nvalue = 0.726"] ;
28 -> 36 ;
37 [label="mse = 0.0\nsamples = 1\nvalue = 0.71"] ;
36 -> 37 ;
38 [label="X[0] <= 0.089\nmse = 0.0\nsamples = 2\nvalue = 0.734"] ;
36 -> 38 ;
39 [label="mse = 0.0\nsamples = 1\nvalue = 0.729"] ;
38 -> 39 ;
40 [label="mse = 0.0\nsamples = 1\nvalue = 0.74"] ;
38 -> 40 ;
41 [label="X[0] <= 0.13\nmse = 0.013\nsamples = 24\nvalue = 0.552"] ;
1 -> 41 ;
42 [label="X[0] <= 0.12\nmse = 0.007\nsamples = 9\nvalue = 0.633"] ;
41 -> 42 ;
43 [label="X[0] <= 0.095\nmse = 0.005\nsamples = 7\nvalue = 0.616"] ;
42 -> 43 ;
44 [label="mse = 0.0\nsamples = 1\nvalue = 0.687"] ;
43 -> 44 ;
45 [label="X[0] <= 0.103\nmse = 0.005\nsamples = 6\nvalue = 0.605"] ;
43 -> 45 ;
46 [label="mse = 0.0\nsamples = 1\nvalue = 0.496"] ;
45 -> 46 ;
47 [label="X[0] <= 0.112\nmse = 0.003\nsamples = 5\nvalue = 0.626"] ;
45 -> 47 ;
48 [label="X[0] <= 0.109\nmse = 0.001\nsamples = 2\nvalue = 0.681"] ;
47 -> 48 ;
49 [label="mse = 0.0\nsamples = 1\nvalue = 0.707"] ;
48 -> 49 ;
50 [label="mse = -0.0\nsamples = 1\nvalue = 0.654"] ;
48 -> 50 ;
51 [label="X[0] <= 0.115\nmse = 0.002\nsamples = 3\nvalue = 0.59"] ;
47 -> 51 ;
52 [label="mse = 0.0\nsamples = 1\nvalue = 0.53"] ;
51 -> 52 ;
53 [label="X[0] <= 0.118\nmse = 0.0\nsamples = 2\nvalue = 0.621"] ;
51 -> 53 ;
54 [label="mse = 0.0\nsamples = 1\nvalue = 0.612"] ;
53 -> 54 ;
55 [label="mse = 0.0\nsamples = 1\nvalue = 0.629"] ;
53 -> 55 ;
56 [label="X[0] <= 0.121\nmse = 0.01\nsamples = 2\nvalue = 0.692"] ;
42 -> 56 ;
57 [label="mse = 0.0\nsamples = 1\nvalue = 0.791"] ;
56 -> 57 ;
58 [label="mse = 0.0\nsamples = 1\nvalue = 0.593"] ;
56 -> 58 ;
59 [label="X[0] <= 0.191\nmse = 0.01\nsamples = 15\nvalue = 0.504"] ;
41 -> 59 ;
60 [label="X[0] <= 0.184\nmse = 0.006\nsamples = 14\nvalue = 0.486"] ;
59 -> 60 ;
61 [label="X[0] <= 0.183\nmse = 0.006\nsamples = 11\nvalue = 0.505"] ;
60 -> 61 ;
62 [label="X[0] <= 0.159\nmse = 0.006\nsamples = 10\nvalue = 0.497"] ;
61 -> 62 ;
63 [label="X[0] <= 0.156\nmse = 0.005\nsamples = 6\nvalue = 0.523"] ;
62 -> 63 ;
64 [label="X[0] <= 0.139\nmse = 0.002\nsamples = 5\nvalue = 0.496"] ;
63 -> 64 ;
65 [label="mse = -0.0\nsamples = 1\nvalue = 0.436"] ;
64 -> 65 ;
66 [label="X[0] <= 0.14\nmse = 0.001\nsamples = 4\nvalue = 0.511"] ;
64 -> 66 ;
67 [label="mse = 0.0\nsamples = 1\nvalue = 0.554"] ;
66 -> 67 ;
68 [label="X[0] <= 0.143\nmse = 0.0\nsamples = 3\nvalue = 0.497"] ;
66 -> 68 ;
69 [label="mse = 0.0\nsamples = 1\nvalue = 0.467"] ;
68 -> 69 ;
70 [label="X[0] <= 0.15\nmse = 0.0\nsamples = 2\nvalue = 0.512"] ;
68 -> 70 ;
71 [label="mse = 0.0\nsamples = 1\nvalue = 0.502"] ;
70 -> 71 ;
72 [label="mse = -0.0\nsamples = 1\nvalue = 0.521"] ;
70 -> 72 ;
73 [label="mse = 0.0\nsamples = 1\nvalue = 0.66"] ;
63 -> 73 ;
74 [label="X[0] <= 0.166\nmse = 0.003\nsamples = 4\nvalue = 0.457"] ;
62 -> 74 ;
75 [label="mse = 0.0\nsamples = 1\nvalue = 0.357"] ;
74 -> 75 ;
76 [label="X[0] <= 0.172\nmse = 0.0\nsamples = 3\nvalue = 0.491"] ;
74 -> 76 ;
77 [label="mse = 0.0\nsamples = 1\nvalue = 0.482"] ;
76 -> 77 ;
78 [label="X[0] <= 0.178\nmse = 0.0\nsamples = 2\nvalue = 0.495"] ;
76 -> 78 ;
79 [label="mse = 0.0\nsamples = 1\nvalue = 0.503"] ;
78 -> 79 ;
80 [label="mse = 0.0\nsamples = 1\nvalue = 0.487"] ;
78 -> 80 ;
81 [label="mse = -0.0\nsamples = 1\nvalue = 0.591"] ;
61 -> 81 ;
82 [label="X[0] <= 0.186\nmse = 0.001\nsamples = 3\nvalue = 0.413"] ;
60 -> 82 ;
83 [label="mse = 0.0\nsamples = 1\nvalue = 0.453"] ;
82 -> 83 ;
84 [label="X[0] <= 0.187\nmse = 0.0\nsamples = 2\nvalue = 0.393"] ;
82 -> 84 ;
85 [label="mse = 0.0\nsamples = 1\nvalue = 0.38"] ;
84 -> 85 ;
86 [label="mse = -0.0\nsamples = 1\nvalue = 0.406"] ;
84 -> 86 ;
87 [label="mse = 0.0\nsamples = 1\nvalue = 0.755"] ;
59 -> 87 ;
88 [label="X[0] <= 0.772\nmse = 0.074\nsamples = 156\nvalue = 0.259"] ;
0 -> 88 [labeldistance=2.5, labelangle=-45, headlabel="False"] ;
89 [label="X[0] <= 0.287\nmse = 0.015\nsamples = 110\nvalue = 0.111"] ;
88 -> 89 ;
90 [label="X[0] <= 0.255\nmse = 0.006\nsamples = 19\nvalue = 0.236"] ;
89 -> 90 ;
91 [label="X[0] <= 0.217\nmse = 0.005\nsamples = 13\nvalue = 0.26"] ;
90 -> 91 ;
92 [label="X[0] <= 0.199\nmse = 0.005\nsamples = 3\nvalue = 0.303"] ;
91 -> 92 ;
93 [label="mse = 0.0\nsamples = 1\nvalue = 0.202"] ;
92 -> 93 ;
94 [label="X[0] <= 0.206\nmse = 0.0\nsamples = 2\nvalue = 0.353"] ;
92 -> 94 ;
95 [label="mse = 0.0\nsamples = 1\nvalue = 0.334"] ;
94 -> 95 ;
96 [label="mse = 0.0\nsamples = 1\nvalue = 0.372"] ;
94 -> 96 ;
97 [label="X[0] <= 0.227\nmse = 0.004\nsamples = 10\nvalue = 0.248"] ;
91 -> 97 ;
98 [label="X[0] <= 0.224\nmse = 0.0\nsamples = 2\nvalue = 0.181"] ;
97 -> 98 ;
99 [label="mse = 0.0\nsamples = 1\nvalue = 0.185"] ;
98 -> 99 ;
100 [label="mse = 0.0\nsamples = 1\nvalue = 0.178"] ;
98 -> 100 ;
101 [label="X[0] <= 0.251\nmse = 0.003\nsamples = 8\nvalue = 0.264"] ;
97 -> 101 ;
102 [label="X[0] <= 0.242\nmse = 0.003\nsamples = 7\nvalue = 0.255"] ;
101 -> 102 ;
103 [label="X[0] <= 0.239\nmse = 0.002\nsamples = 5\nvalue = 0.279"] ;
102 -> 103 ;
104 [label="X[0] <= 0.228\nmse = 0.002\nsamples = 3\nvalue = 0.257"] ;
103 -> 104 ;
105 [label="mse = 0.0\nsamples = 1\nvalue = 0.316"] ;
104 -> 105 ;
106 [label="X[0] <= 0.233\nmse = 0.001\nsamples = 2\nvalue = 0.228"] ;
104 -> 106 ;
107 [label="mse = 0.0\nsamples = 1\nvalue = 0.202"] ;
106 -> 107 ;
108 [label="mse = 0.0\nsamples = 1\nvalue = 0.254"] ;
106 -> 108 ;
109 [label="X[0] <= 0.241\nmse = 0.0\nsamples = 2\nvalue = 0.312"] ;
103 -> 109 ;
110 [label="mse = 0.0\nsamples = 1\nvalue = 0.332"] ;
109 -> 110 ;
111 [label="mse = 0.0\nsamples = 1\nvalue = 0.291"] ;
109 -> 111 ;
112 [label="X[0] <= 0.246\nmse = 0.0\nsamples = 2\nvalue = 0.194"] ;
102 -> 112 ;
113 [label="mse = 0.0\nsamples = 1\nvalue = 0.207"] ;
112 -> 113 ;
114 [label="mse = 0.0\nsamples = 1\nvalue = 0.181"] ;
112 -> 114 ;
115 [label="mse = -0.0\nsamples = 1\nvalue = 0.331"] ;
101 -> 115 ;
116 [label="X[0] <= 0.283\nmse = 0.004\nsamples = 6\nvalue = 0.183"] ;
90 -> 116 ;
117 [label="X[0] <= 0.275\nmse = 0.003\nsamples = 5\nvalue = 0.165"] ;
116 -> 117 ;
118 [label="X[0] <= 0.265\nmse = 0.004\nsamples = 3\nvalue = 0.19"] ;
117 -> 118 ;
119 [label="X[0] <= 0.258\nmse = 0.0\nsamples = 2\nvalue = 0.148"] ;
118 -> 119 ;
120 [label="mse = 0.0\nsamples = 1\nvalue = 0.152"] ;
119 -> 120 ;
121 [label="mse = -0.0\nsamples = 1\nvalue = 0.144"] ;
119 -> 121 ;
122 [label="mse = 0.0\nsamples = 1\nvalue = 0.274"] ;
118 -> 122 ;
123 [label="X[0] <= 0.28\nmse = 0.0\nsamples = 2\nvalue = 0.127"] ;
117 -> 123 ;
124 [label="mse = 0.0\nsamples = 1\nvalue = 0.14"] ;
123 -> 124 ;
125 [label="mse = -0.0\nsamples = 1\nvalue = 0.115"] ;
123 -> 125 ;
126 [label="mse = 0.0\nsamples = 1\nvalue = 0.275"] ;
116 -> 126 ;
127 [label="X[0] <= 0.628\nmse = 0.013\nsamples = 91\nvalue = 0.084"] ;
89 -> 127 ;
128 [label="X[0] <= 0.422\nmse = 0.011\nsamples = 64\nvalue = 0.044"] ;
127 -> 128 ;
129 [label="X[0] <= 0.29\nmse = 0.011\nsamples = 29\nvalue = 0.088"] ;
128 -> 129 ;
130 [label="mse = 0.0\nsamples = 1\nvalue = -0.147"] ;
129 -> 130 ;
131 [label="X[0] <= 0.334\nmse = 0.009\nsamples = 28\nvalue = 0.097"] ;
129 -> 131 ;
132 [label="X[0] <= 0.325\nmse = 0.009\nsamples = 14\nvalue = 0.124"] ;
131 -> 132 ;
133 [label="X[0] <= 0.319\nmse = 0.006\nsamples = 12\nvalue = 0.098"] ;
132 -> 133 ;
134 [label="X[0] <= 0.304\nmse = 0.006\nsamples = 9\nvalue = 0.076"] ;
133 -> 134 ;
135 [label="X[0] <= 0.292\nmse = 0.002\nsamples = 4\nvalue = 0.128"] ;
134 -> 135 ;
136 [label="mse = 0.0\nsamples = 1\nvalue = 0.093"] ;
135 -> 136 ;
137 [label="X[0] <= 0.297\nmse = 0.002\nsamples = 3\nvalue = 0.14"] ;
135 -> 137 ;
138 [label="mse = 0.0\nsamples = 1\nvalue = 0.2"] ;
137 -> 138 ;
139 [label="X[0] <= 0.303\nmse = 0.0\nsamples = 2\nvalue = 0.109"] ;
137 -> 139 ;
140 [label="mse = 0.0\nsamples = 1\nvalue = 0.089"] ;
139 -> 140 ;
141 [label="mse = 0.0\nsamples = 1\nvalue = 0.129"] ;
139 -> 141 ;
142 [label="X[0] <= 0.311\nmse = 0.005\nsamples = 5\nvalue = 0.035"] ;
134 -> 142 ;
143 [label="X[0] <= 0.308\nmse = 0.004\nsamples = 2\nvalue = 0.004"] ;
142 -> 143 ;
144 [label="mse = 0.0\nsamples = 1\nvalue = 0.068"] ;
143 -> 144 ;
145 [label="mse = 0.0\nsamples = 1\nvalue = -0.06"] ;
143 -> 145 ;
146 [label="X[0] <= 0.313\nmse = 0.005\nsamples = 3\nvalue = 0.056"] ;
142 -> 146 ;
147 [label="mse = 0.0\nsamples = 1\nvalue = 0.148"] ;
146 -> 147 ;
148 [label="X[0] <= 0.316\nmse = 0.001\nsamples = 2\nvalue = 0.01"] ;
146 -> 148 ;
149 [label="mse = 0.0\nsamples = 1\nvalue = -0.014"] ;
148 -> 149 ;
150 [label="mse = 0.0\nsamples = 1\nvalue = 0.034"] ;
148 -> 150 ;
151 [label="X[0] <= 0.324\nmse = 0.0\nsamples = 3\nvalue = 0.162"] ;
133 -> 151 ;
152 [label="X[0] <= 0.322\nmse = 0.0\nsamples = 2\nvalue = 0.172"] ;
151 -> 152 ;
153 [label="mse = 0.0\nsamples = 1\nvalue = 0.161"] ;
152 -> 153 ;
154 [label="mse = 0.0\nsamples = 1\nvalue = 0.184"] ;
152 -> 154 ;
155 [label="mse = -0.0\nsamples = 1\nvalue = 0.141"] ;
151 -> 155 ;
156 [label="X[0] <= 0.328\nmse = 0.002\nsamples = 2\nvalue = 0.282"] ;
132 -> 156 ;
157 [label="mse = 0.0\nsamples = 1\nvalue = 0.236"] ;
156 -> 157 ;
158 [label="mse = 0.0\nsamples = 1\nvalue = 0.329"] ;
156 -> 158 ;
159 [label="X[0] <= 0.353\nmse = 0.008\nsamples = 14\nvalue = 0.069"] ;
131 -> 159 ;
160 [label="X[0] <= 0.34\nmse = 0.006\nsamples = 4\nvalue = -0.018"] ;
159 -> 160 ;
161 [label="X[0] <= 0.338\nmse = 0.001\nsamples = 2\nvalue = -0.065"] ;
160 -> 161 ;
162 [label="mse = 0.0\nsamples = 1\nvalue = -0.09"] ;
161 -> 162 ;
163 [label="mse = -0.0\nsamples = 1\nvalue = -0.041"] ;
161 -> 163 ;
164 [label="X[0] <= 0.345\nmse = 0.006\nsamples = 2\nvalue = 0.029"] ;
160 -> 164 ;
165 [label="mse = 0.0\nsamples = 1\nvalue = 0.109"] ;
164 -> 165 ;
166 [label="mse = -0.0\nsamples = 1\nvalue = -0.05"] ;
164 -> 166 ;
167 [label="X[0] <= 0.414\nmse = 0.004\nsamples = 10\nvalue = 0.104"] ;
159 -> 167 ;
168 [label="X[0] <= 0.358\nmse = 0.004\nsamples = 9\nvalue = 0.095"] ;
167 -> 168 ;
169 [label="mse = 0.0\nsamples = 1\nvalue = 0.158"] ;
168 -> 169 ;
170 [label="X[0] <= 0.365\nmse = 0.004\nsamples = 8\nvalue = 0.087"] ;
168 -> 170 ;
171 [label="X[0] <= 0.361\nmse = 0.001\nsamples = 2\nvalue = 0.03"] ;
170 -> 171 ;
172 [label="mse = 0.0\nsamples = 1\nvalue = 0.007"] ;
171 -> 172 ;
173 [label="mse = 0.0\nsamples = 1\nvalue = 0.054"] ;
171 -> 173 ;
174 [label="X[0] <= 0.371\nmse = 0.003\nsamples = 6\nvalue = 0.106"] ;
170 -> 174 ;
175 [label="X[0] <= 0.367\nmse = 0.0\nsamples = 2\nvalue = 0.153"] ;
174 -> 175 ;
176 [label="mse = 0.0\nsamples = 1\nvalue = 0.154"] ;
175 -> 176 ;
177 [label="mse = -0.0\nsamples = 1\nvalue = 0.152"] ;
175 -> 177 ;
178 [label="X[0] <= 0.381\nmse = 0.003\nsamples = 4\nvalue = 0.083"] ;
174 -> 178 ;
179 [label="mse = 0.0\nsamples = 1\nvalue = -0.005"] ;
178 -> 179 ;
180 [label="X[0] <= 0.4\nmse = 0.001\nsamples = 3\nvalue = 0.112"] ;
178 -> 180 ;
181 [label="X[0] <= 0.388\nmse = 0.0\nsamples = 2\nvalue = 0.13"] ;
180 -> 181 ;
182 [label="mse = 0.0\nsamples = 1\nvalue = 0.114"] ;
181 -> 182 ;
183 [label="mse = -0.0\nsamples = 1\nvalue = 0.145"] ;
181 -> 183 ;
184 [label="mse = 0.0\nsamples = 1\nvalue = 0.077"] ;
180 -> 184 ;
185 [label="mse = -0.0\nsamples = 1\nvalue = 0.186"] ;
167 -> 185 ;
186 [label="X[0] <= 0.576\nmse = 0.008\nsamples = 35\nvalue = 0.007"] ;
128 -> 186 ;
187 [label="X[0] <= 0.524\nmse = 0.008\nsamples = 26\nvalue = -0.002"] ;
186 -> 187 ;
188 [label="X[0] <= 0.513\nmse = 0.01\nsamples = 18\nvalue = 0.014"] ;
187 -> 188 ;
189 [label="X[0] <= 0.511\nmse = 0.004\nsamples = 14\nvalue = -0.008"] ;
188 -> 189 ;
190 [label="X[0] <= 0.496\nmse = 0.004\nsamples = 13\nvalue = -0.001"] ;
189 -> 190 ;
191 [label="X[0] <= 0.492\nmse = 0.004\nsamples = 9\nvalue = -0.014"] ;
190 -> 191 ;
192 [label="X[0] <= 0.436\nmse = 0.003\nsamples = 7\nvalue = 0.009"] ;
191 -> 192 ;
193 [label="X[0] <= 0.43\nmse = 0.003\nsamples = 3\nvalue = -0.016"] ;
192 -> 193 ;
194 [label="X[0] <= 0.427\nmse = 0.003\nsamples = 2\nvalue = 0.011"] ;
193 -> 194 ;
195 [label="mse = 0.0\nsamples = 1\nvalue = -0.039"] ;
194 -> 195 ;
196 [label="mse = 0.0\nsamples = 1\nvalue = 0.061"] ;
194 -> 196 ;
197 [label="mse = 0.0\nsamples = 1\nvalue = -0.07"] ;
193 -> 197 ;
198 [label="X[0] <= 0.448\nmse = 0.002\nsamples = 4\nvalue = 0.028"] ;
192 -> 198 ;
199 [label="mse = 0.0\nsamples = 1\nvalue = 0.1"] ;
198 -> 199 ;
200 [label="X[0] <= 0.481\nmse = 0.0\nsamples = 3\nvalue = 0.004"] ;
198 -> 200 ;
201 [label="X[0] <= 0.464\nmse = 0.0\nsamples = 2\nvalue = 0.0"] ;
200 -> 201 ;
202 [label="mse = 0.0\nsamples = 1\nvalue = 0.009"] ;
201 -> 202 ;
203 [label="mse = 0.0\nsamples = 1\nvalue = -0.008"] ;
201 -> 203 ;
204 [label="mse = 0.0\nsamples = 1\nvalue = 0.012"] ;
200 -> 204 ;
205 [label="X[0] <= 0.494\nmse = 0.001\nsamples = 2\nvalue = -0.095"] ;
191 -> 205 ;
206 [label="mse = 0.0\nsamples = 1\nvalue = -0.065"] ;
205 -> 206 ;
207 [label="mse = -0.0\nsamples = 1\nvalue = -0.124"] ;
205 -> 207 ;
208 [label="X[0] <= 0.51\nmse = 0.002\nsamples = 4\nvalue = 0.029"] ;
190 -> 208 ;
209 [label="X[0] <= 0.506\nmse = 0.002\nsamples = 3\nvalue = 0.017"] ;
208 -> 209 ;
210 [label="X[0] <= 0.5\nmse = 0.0\nsamples = 2\nvalue = 0.049"] ;
209 -> 210 ;
211 [label="mse = 0.0\nsamples = 1\nvalue = 0.036"] ;
210 -> 211 ;
212 [label="mse = 0.0\nsamples = 1\nvalue = 0.063"] ;
210 -> 212 ;
213 [label="mse = 0.0\nsamples = 1\nvalue = -0.048"] ;
209 -> 213 ;
214 [label="mse = 0.0\nsamples = 1\nvalue = 0.067"] ;
208 -> 214 ;
215 [label="mse = 0.0\nsamples = 1\nvalue = -0.1"] ;
189 -> 215 ;
216 [label="X[0] <= 0.517\nmse = 0.022\nsamples = 4\nvalue = 0.092"] ;
188 -> 216 ;
217 [label="mse = 0.0\nsamples = 1\nvalue = 0.273"] ;
216 -> 217 ;
218 [label="X[0] <= 0.521\nmse = 0.014\nsamples = 3\nvalue = 0.032"] ;
216 -> 218 ;
219 [label="X[0] <= 0.519\nmse = 0.005\nsamples = 2\nvalue = -0.042"] ;
218 -> 219 ;
220 [label="mse = 0.0\nsamples = 1\nvalue = 0.03"] ;
219 -> 220 ;
221 [label="mse = 0.0\nsamples = 1\nvalue = -0.113"] ;
219 -> 221 ;
222 [label="mse = 0.0\nsamples = 1\nvalue = 0.179"] ;
218 -> 222 ;
223 [label="X[0] <= 0.541\nmse = 0.003\nsamples = 8\nvalue = -0.04"] ;
187 -> 223 ;
224 [label="X[0] <= 0.538\nmse = 0.003\nsamples = 4\nvalue = -0.07"] ;
223 -> 224 ;
225 [label="X[0] <= 0.533\nmse = 0.002\nsamples = 3\nvalue = -0.048"] ;
224 -> 225 ;
226 [label="X[0] <= 0.527\nmse = 0.0\nsamples = 2\nvalue = -0.076"] ;
225 -> 226 ;
227 [label="mse = 0.0\nsamples = 1\nvalue = -0.073"] ;
226 -> 227 ;
228 [label="mse = -0.0\nsamples = 1\nvalue = -0.079"] ;
226 -> 228 ;
229 [label="mse = -0.0\nsamples = 1\nvalue = 0.007"] ;
225 -> 229 ;
230 [label="mse = 0.0\nsamples = 1\nvalue = -0.137"] ;
224 -> 230 ;
231 [label="X[0] <= 0.551\nmse = 0.001\nsamples = 4\nvalue = -0.009"] ;
223 -> 231 ;
232 [label="X[0] <= 0.545\nmse = 0.001\nsamples = 2\nvalue = 0.014"] ;
231 -> 232 ;
233 [label="mse = 0.0\nsamples = 1\nvalue = -0.016"] ;
232 -> 233 ;
234 [label="mse = -0.0\nsamples = 1\nvalue = 0.045"] ;
232 -> 234 ;
235 [label="X[0] <= 0.558\nmse = 0.0\nsamples = 2\nvalue = -0.031"] ;
231 -> 235 ;
236 [label="mse = 0.0\nsamples = 1\nvalue = -0.044"] ;
235 -> 236 ;
237 [label="mse = -0.0\nsamples = 1\nvalue = -0.018"] ;
235 -> 237 ;
238 [label="X[0] <= 0.598\nmse = 0.005\nsamples = 9\nvalue = 0.033"] ;
186 -> 238 ;
239 [label="X[0] <= 0.595\nmse = 0.0\nsamples = 3\nvalue = 0.093"] ;
238 -> 239 ;
240 [label="X[0] <= 0.592\nmse = 0.0\nsamples = 2\nvalue = 0.095"] ;
239 -> 240 ;
241 [label="mse = 0.0\nsamples = 1\nvalue = 0.093"] ;
240 -> 241 ;
242 [label="mse = 0.0\nsamples = 1\nvalue = 0.097"] ;
240 -> 242 ;
243 [label="mse = 0.0\nsamples = 1\nvalue = 0.09"] ;
239 -> 243 ;
244 [label="X[0] <= 0.609\nmse = 0.004\nsamples = 6\nvalue = 0.003"] ;
238 -> 244 ;
245 [label="X[0] <= 0.6\nmse = 0.0\nsamples = 3\nvalue = -0.05"] ;
244 -> 245 ;
246 [label="mse = 0.0\nsamples = 1\nvalue = -0.033"] ;
245 -> 246 ;
247 [label="X[0] <= 0.604\nmse = 0.0\nsamples = 2\nvalue = -0.059"] ;
245 -> 247 ;
248 [label="mse = 0.0\nsamples = 1\nvalue = -0.057"] ;
247 -> 248 ;
249 [label="mse = 0.0\nsamples = 1\nvalue = -0.061"] ;
247 -> 249 ;
250 [label="X[0] <= 0.611\nmse = 0.003\nsamples = 3\nvalue = 0.056"] ;
244 -> 250 ;
251 [label="mse = 0.0\nsamples = 1\nvalue = 0.129"] ;
250 -> 251 ;
252 [label="X[0] <= 0.618\nmse = 0.001\nsamples = 2\nvalue = 0.019"] ;
250 -> 252 ;
253 [label="mse = 0.0\nsamples = 1\nvalue = 0.042"] ;
252 -> 253 ;
254 [label="mse = 0.0\nsamples = 1\nvalue = -0.004"] ;
252 -> 254 ;
255 [label="X[0] <= 0.707\nmse = 0.005\nsamples = 27\nvalue = 0.181"] ;
127 -> 255 ;
256 [label="X[0] <= 0.653\nmse = 0.003\nsamples = 15\nvalue = 0.147"] ;
255 -> 256 ;
257 [label="X[0] <= 0.633\nmse = 0.002\nsamples = 7\nvalue = 0.174"] ;
256 -> 257 ;
258 [label="X[0] <= 0.633\nmse = 0.001\nsamples = 2\nvalue = 0.123"] ;
257 -> 258 ;
259 [label="mse = 0.0\nsamples = 1\nvalue = 0.151"] ;
258 -> 259 ;
260 [label="mse = 0.0\nsamples = 1\nvalue = 0.094"] ;
258 -> 260 ;
261 [label="X[0] <= 0.633\nmse = 0.001\nsamples = 5\nvalue = 0.195"] ;
257 -> 261 ;
262 [label="mse = 0.0\nsamples = 1\nvalue = 0.234"] ;
261 -> 262 ;
263 [label="X[0] <= 0.635\nmse = 0.0\nsamples = 4\nvalue = 0.185"] ;
261 -> 263 ;
264 [label="mse = 0.0\nsamples = 1\nvalue = 0.202"] ;
263 -> 264 ;
265 [label="X[0] <= 0.641\nmse = 0.0\nsamples = 3\nvalue = 0.18"] ;
263 -> 265 ;
266 [label="X[0] <= 0.637\nmse = 0.0\nsamples = 2\nvalue = 0.169"] ;
265 -> 266 ;
267 [label="mse = 0.0\nsamples = 1\nvalue = 0.178"] ;
266 -> 267 ;
268 [label="mse = -0.0\nsamples = 1\nvalue = 0.161"] ;
266 -> 268 ;
269 [label="mse = -0.0\nsamples = 1\nvalue = 0.2"] ;
265 -> 269 ;
270 [label="X[0] <= 0.688\nmse = 0.003\nsamples = 8\nvalue = 0.124"] ;
256 -> 270 ;
271 [label="X[0] <= 0.675\nmse = 0.002\nsamples = 5\nvalue = 0.1"] ;
270 -> 271 ;
272 [label="X[0] <= 0.667\nmse = 0.002\nsamples = 3\nvalue = 0.121"] ;
271 -> 272 ;
273 [label="X[0] <= 0.661\nmse = 0.001\nsamples = 2\nvalue = 0.096"] ;
272 -> 273 ;
274 [label="mse = 0.0\nsamples = 1\nvalue = 0.07"] ;
273 -> 274 ;
275 [label="mse = -0.0\nsamples = 1\nvalue = 0.121"] ;
273 -> 275 ;
276 [label="mse = -0.0\nsamples = 1\nvalue = 0.173"] ;
272 -> 276 ;
277 [label="X[0] <= 0.681\nmse = 0.001\nsamples = 2\nvalue = 0.068"] ;
271 -> 277 ;
278 [label="mse = 0.0\nsamples = 1\nvalue = 0.044"] ;
277 -> 278 ;
279 [label="mse = -0.0\nsamples = 1\nvalue = 0.091"] ;
277 -> 279 ;
280 [label="X[0] <= 0.697\nmse = 0.002\nsamples = 3\nvalue = 0.163"] ;
270 -> 280 ;
281 [label="mse = 0.0\nsamples = 1\nvalue = 0.208"] ;
280 -> 281 ;
282 [label="X[0] <= 0.705\nmse = 0.001\nsamples = 2\nvalue = 0.14"] ;
280 -> 282 ;
283 [label="mse = 0.0\nsamples = 1\nvalue = 0.103"] ;
282 -> 283 ;
284 [label="mse = 0.0\nsamples = 1\nvalue = 0.178"] ;
282 -> 284 ;
285 [label="X[0] <= 0.731\nmse = 0.005\nsamples = 12\nvalue = 0.223"] ;
255 -> 285 ;
286 [label="X[0] <= 0.729\nmse = 0.006\nsamples = 6\nvalue = 0.203"] ;
285 -> 286 ;
287 [label="X[0] <= 0.727\nmse = 0.005\nsamples = 4\nvalue = 0.243"] ;
286 -> 287 ;
288 [label="X[0] <= 0.72\nmse = 0.004\nsamples = 3\nvalue = 0.218"] ;
287 -> 288 ;
289 [label="X[0] <= 0.711\nmse = 0.0\nsamples = 2\nvalue = 0.26"] ;
288 -> 289 ;
290 [label="mse = 0.0\nsamples = 1\nvalue = 0.252"] ;
289 -> 290 ;
291 [label="mse = -0.0\nsamples = 1\nvalue = 0.268"] ;
289 -> 291 ;
292 [label="mse = -0.0\nsamples = 1\nvalue = 0.132"] ;
288 -> 292 ;
293 [label="mse = -0.0\nsamples = 1\nvalue = 0.318"] ;
287 -> 293 ;
294 [label="X[0] <= 0.729\nmse = 0.0\nsamples = 2\nvalue = 0.123"] ;
286 -> 294 ;
295 [label="mse = 0.0\nsamples = 1\nvalue = 0.102"] ;
294 -> 295 ;
296 [label="mse = 0.0\nsamples = 1\nvalue = 0.145"] ;
294 -> 296 ;
297 [label="X[0] <= 0.758\nmse = 0.003\nsamples = 6\nvalue = 0.243"] ;
285 -> 297 ;
298 [label="X[0] <= 0.744\nmse = 0.002\nsamples = 2\nvalue = 0.292"] ;
297 -> 298 ;
299 [label="mse = 0.0\nsamples = 1\nvalue = 0.245"] ;
298 -> 299 ;
300 [label="mse = 0.0\nsamples = 1\nvalue = 0.339"] ;
298 -> 300 ;
301 [label="X[0] <= 0.761\nmse = 0.002\nsamples = 4\nvalue = 0.219"] ;
297 -> 301 ;
302 [label="mse = 0.0\nsamples = 1\nvalue = 0.152"] ;
301 -> 302 ;
303 [label="X[0] <= 0.771\nmse = 0.0\nsamples = 3\nvalue = 0.241"] ;
301 -> 303 ;
304 [label="X[0] <= 0.766\nmse = 0.0\nsamples = 2\nvalue = 0.25"] ;
303 -> 304 ;
305 [label="mse = 0.0\nsamples = 1\nvalue = 0.254"] ;
304 -> 305 ;
306 [label="mse = -0.0\nsamples = 1\nvalue = 0.246"] ;
304 -> 306 ;
307 [label="mse = -0.0\nsamples = 1\nvalue = 0.223"] ;
303 -> 307 ;
308 [label="X[0] <= 0.904\nmse = 0.036\nsamples = 46\nvalue = 0.615"] ;
88 -> 308 ;
309 [label="X[0] <= 0.862\nmse = 0.012\nsamples = 28\nvalue = 0.489"] ;
308 -> 309 ;
310 [label="X[0] <= 0.812\nmse = 0.005\nsamples = 16\nvalue = 0.42"] ;
309 -> 310 ;
311 [label="X[0] <= 0.808\nmse = 0.005\nsamples = 9\nvalue = 0.392"] ;
310 -> 311 ;
312 [label="X[0] <= 0.806\nmse = 0.003\nsamples = 7\nvalue = 0.414"] ;
311 -> 312 ;
313 [label="X[0] <= 0.794\nmse = 0.003\nsamples = 6\nvalue = 0.401"] ;
312 -> 313 ;
314 [label="X[0] <= 0.778\nmse = 0.002\nsamples = 4\nvalue = 0.426"] ;
313 -> 314 ;
315 [label="X[0] <= 0.774\nmse = 0.0\nsamples = 2\nvalue = 0.387"] ;
314 -> 315 ;
316 [label="mse = 0.0\nsamples = 1\nvalue = 0.365"] ;
315 -> 316 ;
317 [label="mse = -0.0\nsamples = 1\nvalue = 0.408"] ;
315 -> 317 ;
318 [label="X[0] <= 0.783\nmse = 0.0\nsamples = 2\nvalue = 0.466"] ;
314 -> 318 ;
319 [label="mse = 0.0\nsamples = 1\nvalue = 0.461"] ;
318 -> 319 ;
320 [label="mse = -0.0\nsamples = 1\nvalue = 0.471"] ;
318 -> 320 ;
321 [label="X[0] <= 0.803\nmse = 0.001\nsamples = 2\nvalue = 0.349"] ;
313 -> 321 ;
322 [label="mse = 0.0\nsamples = 1\nvalue = 0.373"] ;
321 -> 322 ;
323 [label="mse = 0.0\nsamples = 1\nvalue = 0.325"] ;
321 -> 323 ;
324 [label="mse = 0.0\nsamples = 1\nvalue = 0.494"] ;
312 -> 324 ;
325 [label="X[0] <= 0.808\nmse = 0.003\nsamples = 2\nvalue = 0.314"] ;
311 -> 325 ;
326 [label="mse = 0.0\nsamples = 1\nvalue = 0.255"] ;
325 -> 326 ;
327 [label="mse = 0.0\nsamples = 1\nvalue = 0.373"] ;
325 -> 327 ;
328 [label="X[0] <= 0.816\nmse = 0.002\nsamples = 7\nvalue = 0.457"] ;
310 -> 328 ;
329 [label="mse = 0.0\nsamples = 1\nvalue = 0.507"] ;
328 -> 329 ;
330 [label="X[0] <= 0.831\nmse = 0.002\nsamples = 6\nvalue = 0.449"] ;
328 -> 330 ;
331 [label="X[0] <= 0.818\nmse = 0.0\nsamples = 3\nvalue = 0.419"] ;
330 -> 331 ;
332 [label="mse = 0.0\nsamples = 1\nvalue = 0.444"] ;
331 -> 332 ;
333 [label="X[0] <= 0.823\nmse = 0.0\nsamples = 2\nvalue = 0.406"] ;
331 -> 333 ;
334 [label="mse = 0.0\nsamples = 1\nvalue = 0.412"] ;
333 -> 334 ;
335 [label="mse = 0.0\nsamples = 1\nvalue = 0.401"] ;
333 -> 335 ;
336 [label="X[0] <= 0.834\nmse = 0.002\nsamples = 3\nvalue = 0.48"] ;
330 -> 336 ;
337 [label="mse = 0.0\nsamples = 1\nvalue = 0.538"] ;
336 -> 337 ;
338 [label="X[0] <= 0.848\nmse = 0.001\nsamples = 2\nvalue = 0.45"] ;
336 -> 338 ;
339 [label="mse = 0.0\nsamples = 1\nvalue = 0.419"] ;
338 -> 339 ;
340 [label="mse = 0.0\nsamples = 1\nvalue = 0.482"] ;
338 -> 340 ;
341 [label="X[0] <= 0.882\nmse = 0.006\nsamples = 12\nvalue = 0.579"] ;
309 -> 341 ;
342 [label="X[0] <= 0.869\nmse = 0.005\nsamples = 4\nvalue = 0.524"] ;
341 -> 342 ;
343 [label="X[0] <= 0.865\nmse = 0.001\nsamples = 2\nvalue = 0.567"] ;
342 -> 343 ;
344 [label="mse = 0.0\nsamples = 1\nvalue = 0.532"] ;
343 -> 344 ;
345 [label="mse = 0.0\nsamples = 1\nvalue = 0.602"] ;
343 -> 345 ;
346 [label="X[0] <= 0.874\nmse = 0.005\nsamples = 2\nvalue = 0.482"] ;
342 -> 346 ;
347 [label="mse = 0.0\nsamples = 1\nvalue = 0.409"] ;
346 -> 347 ;
348 [label="mse = -0.0\nsamples = 1\nvalue = 0.555"] ;
346 -> 348 ;
349 [label="X[0] <= 0.894\nmse = 0.005\nsamples = 8\nvalue = 0.607"] ;
341 -> 349 ;
350 [label="X[0] <= 0.89\nmse = 0.01\nsamples = 3\nvalue = 0.637"] ;
349 -> 350 ;
351 [label="X[0] <= 0.887\nmse = 0.003\nsamples = 2\nvalue = 0.575"] ;
350 -> 351 ;
352 [label="mse = 0.0\nsamples = 1\nvalue = 0.63"] ;
351 -> 352 ;
353 [label="mse = 0.0\nsamples = 1\nvalue = 0.52"] ;
351 -> 353 ;
354 [label="mse = 0.0\nsamples = 1\nvalue = 0.761"] ;
350 -> 354 ;
355 [label="X[0] <= 0.895\nmse = 0.001\nsamples = 5\nvalue = 0.588"] ;
349 -> 355 ;
356 [label="mse = 0.0\nsamples = 1\nvalue = 0.53"] ;
355 -> 356 ;
357 [label="X[0] <= 0.897\nmse = 0.0\nsamples = 4\nvalue = 0.603"] ;
355 -> 357 ;
358 [label="X[0] <= 0.897\nmse = 0.0\nsamples = 2\nvalue = 0.619"] ;
357 -> 358 ;
359 [label="mse = 0.0\nsamples = 1\nvalue = 0.629"] ;
358 -> 359 ;
360 [label="mse = 0.0\nsamples = 1\nvalue = 0.609"] ;
358 -> 360 ;
361 [label="X[0] <= 0.899\nmse = 0.0\nsamples = 2\nvalue = 0.587"] ;
357 -> 361 ;
362 [label="mse = 0.0\nsamples = 1\nvalue = 0.58"] ;
361 -> 362 ;
363 [label="mse = 0.0\nsamples = 1\nvalue = 0.594"] ;
361 -> 363 ;
364 [label="X[0] <= 0.946\nmse = 0.01\nsamples = 18\nvalue = 0.811"] ;
308 -> 364 ;
365 [label="X[0] <= 0.938\nmse = 0.003\nsamples = 9\nvalue = 0.745"] ;
364 -> 365 ;
366 [label="X[0] <= 0.908\nmse = 0.001\nsamples = 7\nvalue = 0.757"] ;
365 -> 366 ;
367 [label="mse = 0.0\nsamples = 1\nvalue = 0.791"] ;
366 -> 367 ;
368 [label="X[0] <= 0.916\nmse = 0.001\nsamples = 6\nvalue = 0.751"] ;
366 -> 368 ;
369 [label="X[0] <= 0.909\nmse = 0.0\nsamples = 2\nvalue = 0.725"] ;
368 -> 369 ;
370 [label="mse = 0.0\nsamples = 1\nvalue = 0.741"] ;
369 -> 370 ;
371 [label="mse = -0.0\nsamples = 1\nvalue = 0.709"] ;
369 -> 371 ;
372 [label="X[0] <= 0.927\nmse = 0.001\nsamples = 4\nvalue = 0.764"] ;
368 -> 372 ;
373 [label="X[0] <= 0.923\nmse = 0.001\nsamples = 2\nvalue = 0.791"] ;
372 -> 373 ;
374 [label="mse = 0.0\nsamples = 1\nvalue = 0.763"] ;
373 -> 374 ;
375 [label="mse = 0.0\nsamples = 1\nvalue = 0.819"] ;
373 -> 375 ;
376 [label="X[0] <= 0.933\nmse = 0.001\nsamples = 2\nvalue = 0.738"] ;
372 -> 376 ;
377 [label="mse = 0.0\nsamples = 1\nvalue = 0.713"] ;
376 -> 377 ;
378 [label="mse = 0.0\nsamples = 1\nvalue = 0.762"] ;
376 -> 378 ;
379 [label="X[0] <= 0.941\nmse = 0.005\nsamples = 2\nvalue = 0.702"] ;
365 -> 379 ;
380 [label="mse = 0.0\nsamples = 1\nvalue = 0.635"] ;
379 -> 380 ;
381 [label="mse = -0.0\nsamples = 1\nvalue = 0.769"] ;
379 -> 381 ;
382 [label="X[0] <= 0.986\nmse = 0.009\nsamples = 9\nvalue = 0.877"] ;
364 -> 382 ;
383 [label="X[0] <= 0.979\nmse = 0.008\nsamples = 8\nvalue = 0.891"] ;
382 -> 383 ;
384 [label="X[0] <= 0.97\nmse = 0.004\nsamples = 7\nvalue = 0.865"] ;
383 -> 384 ;
385 [label="X[0] <= 0.964\nmse = 0.004\nsamples = 5\nvalue = 0.883"] ;
384 -> 385 ;
386 [label="X[0] <= 0.95\nmse = 0.001\nsamples = 3\nvalue = 0.837"] ;
385 -> 386 ;
387 [label="mse = 0.0\nsamples = 1\nvalue = 0.877"] ;
386 -> 387 ;
388 [label="X[0] <= 0.957\nmse = 0.0\nsamples = 2\nvalue = 0.816"] ;
386 -> 388 ;
389 [label="mse = 0.0\nsamples = 1\nvalue = 0.836"] ;
388 -> 389 ;
390 [label="mse = 0.0\nsamples = 1\nvalue = 0.796"] ;
388 -> 390 ;
391 [label="X[0] <= 0.968\nmse = 0.001\nsamples = 2\nvalue = 0.952"] ;
385 -> 391 ;
392 [label="mse = 0.0\nsamples = 1\nvalue = 0.915"] ;
391 -> 392 ;
393 [label="mse = -0.0\nsamples = 1\nvalue = 0.99"] ;
391 -> 393 ;
394 [label="X[0] <= 0.971\nmse = 0.0\nsamples = 2\nvalue = 0.821"] ;
384 -> 394 ;
395 [label="mse = 0.0\nsamples = 1\nvalue = 0.801"] ;
394 -> 395 ;
396 [label="mse = 0.0\nsamples = 1\nvalue = 0.841"] ;
394 -> 396 ;
397 [label="mse = 0.0\nsamples = 1\nvalue = 1.071"] ;
383 -> 397 ;
398 [label="mse = -0.0\nsamples = 1\nvalue = 0.762"] ;
382 -> 398 ;
}